<?xml version="1.0"?>
<opencv_storage>
<!-- Created using Computer Vision Toolbox(tm) for MATLAB(R) -->
<!-- Version 9.13.0.2193358 (R2022b) Update 5 -->
<!-- Compatible with OpenCV 4.5 -->
<cascade>
  <stageType>BOOST</stageType>
  <featureType>HOG</featureType>
  <height>64</height>
  <width>64</width>
  <stageParams>
    <boostType>GAB</boostType>
    <minHitRate>9.9500000476837158e-01</minHitRate>
    <maxFalseAlarm>9.9999997764825821e-03</maxFalseAlarm>
    <weightTrimRate>9.4999999999999996e-01</weightTrimRate>
    <maxDepth>1</maxDepth>
    <maxWeakCount>100</maxWeakCount></stageParams>
  <featureParams>
    <maxCatCount>0</maxCatCount>
    <featSize>36</featSize></featureParams>
  <stageNum>3</stageNum>
  <stages>
    <!-- stage 0 -->
    <_>
      <maxWeakCount>1</maxWeakCount>
      <stageThreshold>1.</stageThreshold>
      <weakClassifiers>
        <_>
          <internalNodes>
            0 -1 0 8.2877583801746368e-02</internalNodes>
          <leafValues>
            -1. 1.</leafValues></_></weakClassifiers></_>
    <!-- stage 1 -->
    <_>
      <maxWeakCount>2</maxWeakCount>
      <stageThreshold>-6.5168421715497971e-03</stageThreshold>
      <weakClassifiers>
        <_>
          <internalNodes>
            0 -1 4 1.4390221238136292e-01</internalNodes>
          <leafValues>
            -9.9303138256072998e-01 1.</leafValues></_>
        <_>
          <internalNodes>
            0 -1 6 1.1874367296695709e-01</internalNodes>
          <leafValues>
            -9.9305540323257446e-01 9.8651450872421265e-01</leafValues></_></weakClassifiers></_>
    <!-- stage 2 -->
    <_>
      <maxWeakCount>4</maxWeakCount>
      <stageThreshold>1.4446597099304199e+00</stageThreshold>
      <weakClassifiers>
        <_>
          <internalNodes>
            0 -1 5 8.7077498435974121e-02</internalNodes>
          <leafValues>
            -9.7297298908233643e-01 9.4482755661010742e-01</leafValues></_>
        <_>
          <internalNodes>
            0 -1 1 1.4002341032028198e-01</internalNodes>
          <leafValues>
            -9.5112001895904541e-01 8.9018446207046509e-01</leafValues></_>
        <_>
          <internalNodes>
            0 -1 3 7.5533658266067505e-02</internalNodes>
          <leafValues>
            -9.7830379009246826e-01 7.9576557874679565e-01</leafValues></_>
        <_>
          <internalNodes>
            0 -1 2 2.8284406289458275e-02</internalNodes>
          <leafValues>
            -9.3028658628463745e-01 7.3168271780014038e-01</leafValues></_></weakClassifiers></_></stages>
  <features>
    <_>
      <rect>
        16 8 8 8 1</rect></_>
    <_>
      <rect>
        16 20 8 8 1</rect></_>
    <_>
      <rect>
        24 48 8 8 29</rect></_>
    <_>
      <rect>
        24 0 8 16 15</rect></_>
    <_>
      <rect>
        24 32 16 8 28</rect></_>
    <_>
      <rect>
        28 24 16 8 15</rect></_>
    <_>
      <rect>
        12 20 16 16 24</rect></_></features></cascade>
</opencv_storage>
